%YAML:1.0
svm_model: !!opencv-ml-svm
   svm_type: C_SVC
   kernel: { type:LINEAR }
   C: 1.0000000000000001e-01
   term_criteria: { epsilon:1.1920928955078125e-07, iterations:1000 }
   var_all: 3780
   var_count: 3780
   class_count: 2
   class_labels: !!opencv-matrix
      rows: 1
      cols: 2
      dt: i
      data: [ 0, 1 ]
   sv_total: 1
   support_vectors:
      - [ -1.86597486e-03, 6.91908821e-02, 2.93146204e-02,
          5.21793216e-02, -1.08138315e-01, -4.80140410e-02,
          1.03096031e-01, 8.43741372e-02, -4.24043126e-02,
          -1.06361836e-01, 3.75762135e-02, -1.26515627e-02,
          -1.48672238e-01, -3.97839770e-02, -6.39283806e-02,
          -5.99483512e-02, 6.58875927e-02, -1.17600329e-01,
          -1.90326288e-01, 3.81451249e-02, -1.33467950e-02,
          -7.20283985e-02, 1.49895456e-02, -1.03715267e-02,
          4.65009585e-02, 8.89905319e-02, 9.03554931e-02,
          -9.60003138e-02, 8.56070742e-02, -1.04607910e-01,
          -7.26204738e-03, 8.91363099e-02, -1.90877914e-02,
          -6.19702302e-02, 4.29828279e-03, -5.62289059e-02,
          -6.47091568e-02, 9.71862823e-02, 3.07139335e-03,
          -3.58674489e-03, -9.67588425e-02, -9.59691033e-02,
          7.88408592e-02, 5.65513074e-02, -9.27964807e-04,
          -6.51696026e-02, 1.19881652e-01, -3.86551321e-02,
          8.07586089e-02, -6.59666136e-02, -2.32590437e-02,
          7.74721354e-02, -5.28748073e-02, -5.96319735e-02,
          -1.54696196e-01, 9.23905820e-02, -7.55872726e-02,
          -5.09653091e-02, -1.12718657e-01, 4.80405837e-02,
          -5.02978861e-02, -1.44130783e-02, -8.73142853e-02,
          -5.64236455e-02, -2.27798708e-02, -1.99799314e-01,
          -4.02555875e-02, -1.71445146e-01, 5.45306914e-02,
          -2.02544197e-03, -1.93238258e-02, -1.58484802e-01,
          -6.98628137e-03, -2.36028456e-03, -7.95256793e-02,
          -8.69444851e-03, -3.31430770e-02, 4.55206297e-02,
          -1.19104750e-01, -3.89315232e-07, -8.80289227e-02,
          -8.02686512e-02, 6.82553127e-02, -1.23993428e-02,
          -3.06065213e-02, -3.68412286e-02, -2.25523021e-02,
          -1.28363475e-01, 1.86250769e-02, -1.03588350e-01,
          -7.50327781e-02, -3.00521776e-02, -9.39536020e-02,
          -6.99622259e-02, -1.24657087e-01, -9.76120494e-03,
          -8.99828447e-04, 3.28086503e-02, 1.30190579e-02,
          1.14159681e-01, -1.54721394e-01, -5.23467325e-02,
          1.31932541e-03, -1.19297039e-02, -5.28663024e-02,
          1.42624223e-04, -4.71515693e-02, -4.39833179e-02,
          -1.30930573e-01, 4.93536294e-02, -8.58580992e-02,
          -7.88432583e-02, 7.65814562e-04, 3.81188691e-02,
          -1.81604505e-01, -1.07590370e-01, -6.40196949e-02,
          -3.07865459e-02, 4.88959718e-03, -1.21245548e-01,
          -6.44937530e-02, -3.86965461e-02, 6.78477064e-02,
          -1.21078767e-01, -8.63777474e-02, -6.39717048e-03,
          -1.02809137e-02, -6.40480174e-03, -4.26542573e-02,
          3.50237377e-02, 3.01848771e-03, 1.88478492e-02,
          -4.70038131e-02, -9.68212932e-02, -3.05745099e-02,
          -3.45709152e-03, 2.94054579e-02, -2.09222082e-02,
          -2.43224818e-02, -1.24263028e-02, 6.51944950e-02,
          5.57958893e-02, 9.20065492e-02, -1.85415540e-02,
          -6.53520823e-02, -3.02666780e-02, -1.46021880e-02,
          8.93001929e-02, -5.28479293e-02, 1.23687070e-02,
          -3.26181464e-02, -7.20256791e-02, -1.27415255e-01,
          -3.71256582e-02, -1.34934094e-02, -5.87917417e-02,
          7.98958763e-02, 4.04829420e-02, -1.26417711e-01,
          1.52370870e-01, 1.68970097e-02, 2.86224671e-02,
          -8.46303329e-02, -6.44923598e-02, -3.85841914e-02,
          4.17488767e-03, -4.32145633e-02, 3.35996263e-02,
          -2.46298537e-02, 5.30564284e-04, -8.12816322e-02,
          1.68841202e-02, 9.99488635e-04, -7.46549889e-02,
          -7.49063343e-02, -6.64107651e-02, -5.78320213e-02,
          -1.77465864e-02, -1.73919685e-02, 1.40552834e-01,
          4.63303663e-02, -2.77888775e-03, -8.03781226e-02,
          9.88645107e-02, 2.44044419e-03, -4.07855585e-02,
          3.96025069e-02, -3.67665961e-02, -1.03676142e-02,
          -3.66756357e-02, 1.21073216e-01, -5.19342162e-02,
          6.93663508e-02, -8.94857477e-03, -1.91281375e-03,
          3.46517414e-02, -1.90747939e-02, -1.98521689e-02,
          -4.72439677e-02, 9.59628746e-02, -5.29425368e-02,
          5.04760188e-04, -1.17614977e-02, 7.18129659e-03,
          -3.86982299e-02, -8.20632577e-02, 8.74229893e-02,
          -2.31943019e-02, 7.17198327e-02, 1.16002578e-02,
          -6.27844557e-02, -1.15790432e-02, 1.64823458e-02,
          -2.66855047e-03, -2.20381580e-02, -4.60008066e-03,
          2.49594823e-03, -3.98786813e-02, -2.62813326e-02,
          -2.33828276e-02, -1.35503635e-02, -3.07117496e-02,
          7.62131363e-02, -4.29585651e-02, 4.64483313e-02,
          6.68978319e-02, -4.97266240e-02, 3.26735862e-02,
          -3.78365666e-02, -8.04175157e-03, -4.07124944e-02,
          -2.84571480e-02, -2.41403989e-02, 3.42498943e-02,
          -7.02652847e-03, -5.99706266e-03, -3.32589522e-02,
          -1.58447117e-01, -4.32123467e-02, -5.01546711e-02,
          -1.96742383e-03, -1.16743654e-01, -8.07623193e-02,
          1.05933696e-02, 5.46006560e-02, -5.02949692e-02,
          1.83801772e-03, 1.21043354e-01, 5.96049950e-02,
          -2.89079957e-02, -5.01589663e-02, 1.80508625e-02,
          -5.30270748e-02, -7.78638385e-03, -7.71148875e-02,
          -1.38311386e-01, -9.97906029e-02, -3.61879393e-02,
          3.56997550e-02, -1.72331538e-02, -9.65166464e-02,
          -2.83476971e-02, 9.40234214e-02, -2.13936772e-02,
          -3.87411639e-02, 1.56793036e-02, -5.86838946e-02,
          4.42297943e-02, 6.45500794e-02, -6.68167835e-03,
          -1.91554669e-02, -3.93296964e-03, -9.13451910e-02,
          -1.54383048e-01, 5.72251007e-02, -1.10017709e-01,
          -7.78390691e-02, -6.73181042e-02, -9.74938832e-03,
          2.37582475e-02, 2.11400464e-02, -7.75508881e-02,
          -1.64317459e-01, 3.82515742e-03, -8.64914432e-03,
          -1.02603892e-02, -4.26798128e-02, 1.16204277e-01,
          -3.50236781e-02, -1.28029302e-01, -4.35137469e-03,
          8.07154365e-03, -5.08652218e-02, -7.81237856e-02,
          -2.71082576e-02, -5.97629398e-02, 1.30778989e-02,
          1.14061229e-01, 7.84798432e-03, 3.53566022e-03,
          -4.12187120e-03, 1.59276463e-03, -7.52943242e-03,
          5.00484817e-02, -3.57903801e-02, 1.07183412e-01,
          -8.74887556e-02, -4.62020412e-02, -7.62672201e-02,
          -6.68073669e-02, -8.66921544e-02, 4.67905216e-02,
          1.32473102e-02, -1.08776420e-01, -4.01883572e-02,
          -2.24983431e-02, 6.89930618e-02, 1.33559346e-01,
          -6.15366623e-02, -8.09262469e-02, 8.55629221e-02,
          -2.98871044e-02, 6.93376213e-02, -4.01788168e-02,
          -2.31836084e-02, -1.21168680e-02, -1.10539701e-02,
          -6.26051426e-02, 4.66324687e-02, 4.02070861e-03,
          1.05506191e-02, -1.14879474e-01, 9.71674547e-02,
          5.95054924e-02, 1.02612823e-01, 1.00736044e-01,
          -6.10208251e-02, 7.64919594e-02, -5.01322858e-02,
          1.62355319e-01, -6.02179989e-02, -3.32052074e-02,
          -1.02820560e-01, 4.46608886e-02, 7.08576143e-02,
          -4.78487089e-02, 1.30547836e-01, 3.17373350e-02,
          -3.08854859e-02, 6.64142296e-02, -8.14169422e-02,
          -5.21923229e-02, 1.34570926e-01, -3.06359585e-02,
          -1.29475156e-02, 3.39358710e-02, 6.82630390e-02,
          1.04175799e-01, 7.79990107e-02, 6.35591010e-03,
          -1.80193235e-03, 7.71208405e-02, 1.22314341e-01,
          -1.02638444e-02, -2.12750919e-02, -5.18787559e-03,
          1.17052704e-01, -9.31744576e-02, -6.43291697e-02,
          -3.02213728e-02, 3.70215736e-02, 7.69348964e-02,
          7.07608387e-02, 9.18977186e-02, -9.90463644e-02,
          1.22840039e-01, -6.57466203e-02, 7.09520653e-02,
          -9.58894044e-02, 1.40805002e-02, -5.27568683e-02,
          -4.28303592e-02, 8.21345020e-03, 5.22688590e-02,
          -3.23525220e-02, -3.96470018e-02, -7.46359527e-02,
          -4.89061289e-02, 2.50371993e-02, 1.20111369e-01,
          8.31576586e-02, -3.19013302e-03, 2.25725095e-03,
          5.21537326e-02, -5.98692931e-02, -1.21139381e-02,
          -5.43860346e-02, -3.71079631e-02, -3.08847409e-02,
          -1.77275851e-01, 1.68578308e-02, -1.47413433e-01,
          6.56919703e-02, -5.18314634e-03, 5.66605553e-02,
          -7.57094994e-02, -4.98942845e-02, 8.19743425e-02,
          -5.93868643e-02, 4.90800887e-02, 5.72347231e-02,
          7.48296753e-02, -1.72227174e-02, -1.12364776e-02,
          -1.46368325e-01, 1.05851674e-02, 6.49886066e-03,
          -3.72568667e-02, 1.31161869e-01, -1.64540470e-01,
          5.98397255e-02, 3.32580581e-02, -3.78760919e-02,
          8.29696879e-02, 7.22391829e-02, 1.18549347e-01, 4.51792851e-02,
          2.25392058e-02, 6.38970658e-02, -2.61931010e-02,
          -1.16771199e-01, 1.40315890e-02, -6.05392754e-02,
          -1.27466127e-01, 5.09901419e-02, -7.13919923e-02,
          2.33383402e-02, -9.31736603e-02, -1.39853368e-02,
          -1.34930685e-01, -3.16976048e-02, -1.19261272e-01,
          -4.17697355e-02, 9.12237763e-02, 8.57954398e-02,
          1.06191032e-01, -2.34988780e-04, 8.48260745e-02,
          9.73831713e-02, 7.52855912e-02, 4.93051019e-03,
          -5.63982129e-03, -1.72493439e-02, -1.51202917e-01,
          -1.32632583e-01, -1.25188649e-01, 1.37591651e-02,
          -1.43195093e-01, -2.59388350e-02, 6.29096329e-02,
          7.62947230e-03, 2.88324449e-02, 4.60601449e-02, 5.05090319e-02,
          -1.08126082e-01, 1.47508585e-03, -3.19387726e-02,
          -1.25369765e-02, -7.69161582e-02, 3.00466153e-03,
          1.58786285e-03, -4.74596024e-02, 6.80268705e-02,
          -5.76568097e-02, -3.99328806e-02, -5.09544052e-02,
          -9.06772092e-02, -2.22275555e-02, 1.00273579e-01,
          8.08308870e-02, 1.37308061e-01, 6.38514161e-02, 4.80977213e-03,
          5.89633323e-02, -1.08603165e-01, 2.04886738e-02,
          1.60771329e-02, 3.29576433e-02, -1.12830298e-02,
          -1.73957467e-01, 8.02481826e-03, -7.85993412e-02,
          8.48780349e-02, 3.77839245e-02, 3.99715565e-02,
          -2.47416329e-02, 3.90368216e-02, 1.48300812e-01,
          -1.03388606e-02, 2.66825315e-02, 4.91416678e-02,
          7.11643486e-04, 3.08333021e-02, 2.39380598e-02,
          -6.91335723e-02, 1.14404215e-02, 5.34637943e-02,
          -9.21184197e-02, 6.48248345e-02, -1.47245646e-01,
          7.25909397e-02, -3.04313637e-02, 1.04676718e-02,
          1.32344767e-01, -4.06788569e-03, -9.60268751e-02,
          -2.22843707e-01, 3.65821756e-02, -1.09061800e-01,
          -8.48912634e-03, -1.01074010e-01, 9.24470276e-02,
          -9.27126855e-02, -1.60812303e-01, -4.19142283e-02,
          -9.53859761e-02, 4.64083515e-02, -7.47414827e-02,
          -8.38852152e-02, -4.42454144e-02, -1.21350609e-01,
          -8.65326263e-03, -8.15823004e-02, -1.04618810e-01,
          -6.48687184e-02, -2.37988066e-02, 1.68601219e-02,
          -1.63588189e-02, -5.79119660e-02, -3.43102887e-02,
          -1.57618657e-01, -1.12105301e-02, 1.46500170e-02,
          2.14847294e-03, -8.58467370e-02, 5.39730340e-02,
          -4.44785245e-02, 8.22676197e-02, -2.65467055e-02,
          -1.38713732e-01, 2.00718939e-02, -1.30372360e-01,
          -5.09077087e-02, -1.30442232e-01, -7.32513070e-02,
          -6.61343187e-02, -7.46345799e-03, -5.06257042e-02,
          6.48766086e-02, 6.42517433e-02, 1.75475627e-02,
          -4.42655571e-03, 1.74775310e-02, 6.22467734e-02,
          -5.96785359e-02, 5.33268712e-02, 3.05853002e-02,
          5.62588051e-02, -2.32860390e-02, -1.84011847e-01,
          6.38057813e-02, 1.30363526e-02, -9.58322659e-02,
          -8.86983275e-02, -1.61687165e-01, -8.61934796e-02,
          -9.58257243e-02, 1.71116903e-01, 1.29958475e-02,
          -2.52130404e-02, -1.40189156e-01, 3.00475955e-02,
          6.61303401e-02, -2.16300637e-02, -4.69420590e-02,
          -6.00982830e-02, 4.52000946e-02, -1.78912953e-02,
          4.60150838e-02, 1.13708332e-01, 5.17234113e-03,
          -7.35240057e-02, 5.56286983e-02, -7.22764879e-02,
          5.60032055e-02, 8.99349228e-02, 4.93629463e-03,
          -2.84533389e-02, -8.93471837e-02, -8.51667002e-02,
          2.02442762e-02, 8.28811899e-02, 4.43407819e-02,
          -6.20176792e-02, -1.20613486e-01, -7.46405497e-02,
          -3.40973139e-02, 2.42245235e-02, -4.31008041e-02,
          5.72645701e-02, 5.98839335e-02, 1.17549086e-02,
          -6.50731921e-02, 1.31116703e-01, -1.30392229e-02,
          2.82484312e-02, -7.44847283e-02, -3.18095200e-02,
          -1.10969894e-01, 8.00141022e-02, 4.91302982e-02,
          2.07249746e-02, 6.80611422e-03, -3.73054966e-02,
          -1.75715890e-03, -1.59236602e-02, 2.49590017e-02,
          -6.63957819e-02, -2.82479711e-02, -3.80635522e-02,
          -3.54293399e-02, -2.82704774e-02, -4.51237150e-02,
          -8.30573067e-02, -7.37355053e-02, 8.49115774e-02,
          -1.91915166e-02, -2.51765531e-02, 3.57845947e-02,
          3.03566586e-02, 8.02973509e-02, 8.85149539e-02, 4.06778604e-02,
          -8.75909403e-02, 2.56211869e-02, -7.91329220e-02,
          -1.58822119e-01, 8.39875732e-03, 7.90742338e-02,
          3.67543995e-02, 9.98194888e-03, 5.08143380e-02, 6.31641597e-03,
          1.82644241e-02, -8.46019313e-02, 7.31088296e-02,
          -2.41361819e-02, 9.54251736e-03, 1.36704594e-01,
          9.40254703e-02, 1.60178825e-01, -2.62460597e-02,
          -2.69244220e-02, -1.16517909e-01, 7.84900934e-02,
          -4.81607690e-02, -2.00933008e-03, 1.18779451e-01,
          -1.09387375e-01, 6.09200858e-02, 8.83555040e-02,
          9.32613984e-02, -6.38833046e-02, 2.06199894e-03,
          -1.71107557e-02, -4.74151224e-02, -3.14800665e-02,
          -5.66913374e-02, 2.00593434e-02, 5.07936142e-02,
          -5.32929823e-02, -2.24352609e-02, -8.82479101e-02,
          -2.31226757e-02, -5.52810729e-02, 8.71664956e-02,
          2.45921146e-02, 1.38526373e-02, -1.18224047e-01,
          -3.54663888e-03, -1.89512074e-02, -1.00855939e-01,
          -1.08205983e-02, -1.11221150e-01, 1.08115755e-01,
          1.08763315e-01, -7.22833127e-02, -5.25979102e-02,
          -4.52066921e-02, -1.02227051e-02, 5.35591319e-03,
          6.90255538e-02, -4.33150567e-02, -7.31753558e-02,
          5.07244878e-02, 9.61707532e-03, -3.93605698e-03,
          1.38407191e-02, 1.67596026e-03, -7.43370056e-02,
          4.54080477e-02, 5.59153669e-02, -5.07176258e-02,
          7.16646984e-02, 3.79133224e-02, -5.21431044e-02,
          -2.79341568e-03, 1.14647463e-01, 6.64912388e-02,
          -1.19058654e-01, -2.18797922e-01, -1.22884754e-02,
          5.73060811e-02, 4.86206524e-02, -4.35570329e-02,
          3.10324747e-02, -5.62727526e-02, -1.26156494e-01,
          -4.46719229e-02, -1.66211762e-02, -4.58200909e-02,
          -3.04933935e-02, 4.94982339e-02, -7.72980452e-02,
          3.46244778e-03, 3.40835899e-02, 2.06041262e-02,
          -2.15820801e-02, -1.14398129e-01, -1.22317798e-01,
          3.90531570e-02, 1.33038014e-01, 1.47397891e-02, 1.04106240e-01,
          4.67459997e-03, -2.38596275e-02, -1.92340210e-01,
          8.29739571e-02, -2.72196252e-02, 6.79231435e-03,
          3.51685956e-02, -1.11625614e-02, -3.09384875e-02,
          -2.82961745e-02, -2.41350499e-03, -1.19282186e-01,
          6.14508018e-02, 8.21615085e-02, 5.46593741e-02,
          -1.58895887e-02, -8.91197398e-02, -9.79171470e-02,
          6.23684563e-02, -4.04155627e-02, -2.34436281e-02,
          -6.38942197e-02, -3.19367573e-02, -1.71432737e-02,
          -2.90078856e-02, -4.19514365e-02, 6.03579469e-02,
          8.15991759e-02, 1.28385365e-01, -2.24282295e-02,
          -4.81176265e-02, -3.12234089e-02, 2.72761285e-02,
          -4.48854007e-02, -2.42861994e-02, -5.47940060e-02,
          -2.97773965e-02, -4.68202308e-02, -9.76313800e-02,
          7.91624561e-03, 7.96684250e-03, 8.98310617e-02, 7.48287216e-02,
          9.54122469e-03, -5.65574411e-03, -2.67034508e-02,
          -3.82535979e-02, 2.36028675e-02, -1.40034541e-01,
          9.38121323e-03, -9.65692252e-02, -7.46452734e-02,
          -5.69337718e-02, -2.23368555e-02, 1.61978174e-02,
          4.41422798e-02, -8.54309369e-03, -1.05285875e-01,
          1.24585934e-01, 3.18140388e-02, -4.77037728e-02,
          2.77505051e-02, -3.37630347e-03, 6.86815903e-02,
          4.08771001e-02, -1.35761965e-02, -3.24249379e-02,
          -3.99798304e-02, -2.13686638e-02, 5.15303463e-02,
          4.89680916e-02, -4.54614758e-02, -2.55157817e-02,
          -1.06452815e-01, 9.71961021e-03, 6.79676188e-03,
          1.02648856e-02, 1.70946438e-02, -4.81218547e-02,
          -2.59771943e-02, -5.93723357e-02, -8.97946116e-03,
          -2.67215241e-02, -8.75011533e-02, -1.86431363e-01,
          -2.64103096e-02, -9.19940546e-02, -8.16118270e-02,
          -1.03184776e-02, -8.13540816e-03, -4.30400483e-02,
          -2.15551048e-03, -1.13401130e-01, -2.59431619e-02,
          1.00616537e-01, -2.53582522e-02, -2.70703975e-02,
          -4.13892604e-02, 5.44249862e-02, -7.56964833e-02,
          1.00623839e-01, 1.04087908e-02, -1.37602538e-01,
          4.83503863e-02, 2.27738153e-02, -1.42314091e-01,
          -8.79671872e-02, -5.25932722e-02, -3.31442356e-02,
          -8.38254094e-02, -1.14636213e-01, 7.88968056e-02,
          7.16143772e-02, -4.29095440e-02, 2.94794887e-02,
          1.36197489e-02, -7.93264881e-02, 1.08324133e-01,
          -4.25910205e-02, 1.07200682e-01, -3.79574299e-02,
          6.02260306e-02, -2.26189243e-03, -7.24849328e-02,
          -5.59438281e-02, 2.94876210e-02, -1.22590318e-01,
          5.45214601e-02, -5.93467429e-02, 4.03734073e-02,
          5.15817897e-03, -1.81860011e-02, 7.28369206e-02,
          -1.60112064e-02, 3.19717824e-02, 3.38157639e-02,
          3.45974565e-02, 5.81295714e-02, -1.34210631e-01,
          -2.57413220e-02, -7.05478862e-02, -2.08794419e-03,
          -1.12785645e-01, -1.49286836e-01, 1.08222105e-02,
          -6.99704289e-02, 8.22973996e-02, -1.21427691e-02,
          -1.14006065e-01, 2.19617430e-02, -3.79516631e-02,
          -1.99355260e-01, -1.21745758e-01, 5.42736538e-02,
          -2.95573566e-02, 2.70511135e-02, -5.08058891e-02,
          6.67645335e-02, -3.19513958e-03, -1.46332989e-02,
          -6.88678101e-02, 2.93603297e-02, 5.90804927e-02,
          3.14596738e-03, -3.24598253e-02, -3.11328378e-02,
          1.11356162e-01, 4.42712270e-02, -2.20551044e-02,
          -5.89104481e-02, -3.61341145e-03, 7.93616548e-02,
          6.95283487e-02, 3.63604422e-03, 4.43590544e-02,
          -8.69457722e-02, 6.70587504e-03, -3.50003177e-03,
          -2.41592467e-01, -3.67756896e-02, 4.47569154e-02,
          -8.76519904e-02, -1.06890639e-02, 8.74290243e-03,
          -2.43622139e-02, -8.21755677e-02, 8.01406521e-03,
          -5.04631698e-02, -1.99291147e-02, -2.21749712e-02,
          -6.92949817e-03, -7.72123113e-02, -1.19344192e-02,
          1.02597937e-01, -2.74808966e-02, -5.41344471e-02,
          -5.91670685e-02, -8.94531310e-02, 5.04319519e-02,
          -4.05284949e-02, -6.03679456e-02, 1.95952859e-02,
          6.06921315e-02, 6.87291250e-02, 9.90433395e-02,
          -4.11394984e-02, 1.16059177e-01, 9.09568071e-02,
          -1.26498044e-02, -1.06742457e-01, -3.77258658e-02,
          -1.24786966e-01, -7.97317028e-02, -8.56851116e-02,
          -7.40199015e-02, -1.17976569e-01, -3.00745033e-02,
          -8.95901471e-02, -1.25966206e-01, 9.15198550e-02,
          -1.18059918e-01, 3.41873951e-02, 8.08611587e-02,
          -5.97822759e-03, 2.45961603e-02, 2.07768366e-01,
          -5.58647178e-02, 4.93665691e-03, 3.32771353e-02,
          9.39093679e-02, 3.56217623e-02, -9.59243402e-02,
          3.25100236e-02, 1.19882384e-02, 2.06400566e-02,
          -1.35557830e-01, 1.11022536e-02, 1.31294861e-01,
          1.91551581e-01, 6.40644953e-02, 5.78855500e-02, 6.97943419e-02,
          1.32093027e-01, 2.65432335e-02, -1.17222130e-01,
          3.84679735e-02, -5.62881678e-02, -2.97653358e-02,
          -1.13987690e-02, -9.01228637e-02, -1.68752372e-01,
          -1.58050418e-01, -9.60872993e-02, -1.20250314e-01,
          -5.70274107e-02, -4.65494692e-02, 6.28865808e-02,
          -7.65241161e-02, -1.09550461e-01, -4.21075411e-02,
          2.17016470e-02, -4.98707667e-02, -1.15644887e-01,
          -4.71841730e-02, -2.82383822e-02, 1.64118662e-01,
          1.55205687e-03, 1.81467179e-02, 3.19322525e-03, 2.00022925e-02,
          -5.65175824e-02, -4.10906747e-02, 4.86185551e-02,
          2.65042223e-02, 1.44340232e-01, 1.96754202e-01, 1.10627495e-01,
          1.49257392e-01, 1.34656444e-01, 2.07111575e-02, 1.08092152e-01,
          5.37351593e-02, -2.27135003e-01, -6.17979374e-03,
          -1.81240708e-01, -1.45055741e-01, -1.72529593e-01,
          -1.16042323e-01, -2.96009570e-01, -1.50726527e-01,
          -5.18681593e-02, 8.84073824e-02, 4.58655693e-02,
          -1.46922814e-02, -2.44606715e-02, -6.97758868e-02,
          -1.99625403e-01, -7.66736269e-02, 1.43700942e-01,
          1.25005499e-01, -3.24415527e-02, -3.26247774e-02,
          -4.41763997e-02, -8.37677792e-02, -7.53427297e-02,
          -8.73879790e-02, -1.49943516e-01, 3.56697701e-02,
          -6.89768046e-02, 3.30194235e-02, 2.51890700e-02,
          3.73201608e-03, 5.66826761e-03, -2.66425163e-02,
          -1.81657784e-02, 4.58281673e-02, 6.50839359e-02,
          7.92290866e-02, 6.87592700e-02, -1.12659233e-02,
          -5.39157614e-02, -8.07388350e-02, 2.81352736e-02,
          -1.62739664e-01, -3.10408007e-02, 3.88287893e-03,
          -4.91921194e-02, 9.27129313e-02, 3.33719216e-02,
          4.53776605e-02, -4.86482261e-03, 1.32101983e-01,
          -2.71244980e-02, 1.98920146e-02, -3.93638052e-02,
          -3.80313545e-02, -7.92684257e-02, 1.83898494e-01,
          -2.04334389e-02, -9.26597640e-02, -2.03892633e-01,
          -3.08025926e-02, 4.60909586e-03, 7.34396726e-02,
          -1.60475001e-01, -3.00686676e-02, 2.69072945e-03,
          -1.12548254e-01, -8.93766992e-03, -9.81718600e-02,
          -3.90004888e-02, -1.38839539e-02, -2.04396509e-02,
          -1.43107653e-01, -9.10179988e-02, 1.17195733e-01,
          3.05400137e-02, -6.85824156e-02, -2.08808944e-01,
          -3.79332043e-02, 2.77553741e-02, 1.34976923e-01,
          -2.36005690e-02, -1.58621475e-01, -5.86359873e-02,
          -1.70330349e-02, 1.13448620e-01, -1.49595644e-03,
          -1.64423957e-01, 3.92122567e-03, -7.30793783e-03,
          -7.31386393e-02, -3.83907408e-02, 8.38566124e-02,
          -5.10915257e-02, -8.38110670e-02, -5.41962795e-02,
          6.41412055e-03, 7.70065635e-02, 1.31247878e-01,
          -9.64676961e-02, -1.49284359e-02, 4.42878008e-02,
          3.05262469e-02, -4.15417664e-02, 7.60217011e-02,
          -2.55943947e-02, 3.65343057e-02, 2.87653673e-02,
          -1.06816433e-01, -1.20062105e-01, 6.56460747e-02,
          -3.40954475e-02, 8.77652504e-03, -7.98795000e-03,
          -8.88474956e-02, 1.30993366e-01, 1.98227912e-01,
          6.59702420e-02, -5.77746471e-03, -1.57799572e-01,
          -2.23292977e-01, -1.81052908e-01, -1.05773285e-01,
          -2.09350079e-01, -5.11818007e-02, -7.63756922e-03,
          -8.78396183e-02, -4.91099097e-02, -2.24888772e-02,
          3.62092927e-02, 2.15476360e-02, -3.17940749e-02,
          5.82095832e-02, 4.53317128e-02, 5.93829080e-02, 1.33447517e-02,
          -2.02497452e-01, 2.76809651e-02, -1.64873507e-02,
          -5.45468628e-02, -3.22639346e-02, 7.60996640e-02,
          -1.24492096e-02, 1.44646941e-02, -1.30167380e-01,
          -8.52163285e-02, -9.38513651e-02, 1.01995666e-03,
          7.08834976e-02, 2.03577727e-02, -1.29710600e-01,
          -1.06088124e-01, -7.27428123e-02, -1.00209855e-01,
          -1.11509718e-01, -1.02768682e-01, -1.29224490e-02,
          -1.34093352e-02, -2.79426854e-02, -2.38015838e-02,
          -1.26225546e-01, -4.72192392e-02, -2.07471222e-01,
          4.61949259e-02, 4.00952250e-02, -2.93163419e-01,
          -1.44391209e-01, -4.84637097e-02, 1.06818125e-01,
          -5.66539653e-02, 5.62905297e-02, 9.33672190e-02,
          6.50365278e-02, 3.20760570e-02, -1.78120792e-01,
          -3.66844311e-02, 5.74020967e-02, 6.69793338e-02,
          3.69786657e-02, 1.60789996e-01, 1.00899801e-01,
          -3.15213464e-02, -2.06047103e-01, -2.15839669e-01,
          -1.82767883e-01, -1.00507572e-01, 4.48298156e-02,
          -1.20869584e-01, -2.83792429e-02, -1.23178542e-01,
          4.85665984e-02, -1.47680879e-01, -2.20045954e-01,
          3.02077341e-03, -2.01568063e-02, 1.32554956e-02,
          -4.34445478e-02, 1.50655182e-02, -4.41392176e-02,
          -1.04296558e-01, -2.47720540e-01, -1.69073567e-01,
          7.74413943e-02, 5.09421267e-02, 2.59147566e-02,
          -7.59509280e-02, -7.60779530e-02, -9.80818793e-02,
          1.32841185e-01, -1.31114468e-01, -1.03854865e-01,
          5.65057397e-02, -8.98637623e-03, -7.29808409e-04,
          -9.08927701e-04, -2.07341872e-02, -9.94952545e-02,
          -6.98972642e-02, -1.91238299e-01, -4.30274084e-02,
          1.44253358e-01, 1.24891162e-01, 6.80684671e-02,
          -1.88977033e-01, -2.52445582e-02, -1.25893027e-01,
          1.25688225e-01, -1.03420077e-03, 1.21907972e-01,
          1.24342918e-01, 2.02005312e-01, 2.07036108e-01, 1.00010522e-01,
          1.43295005e-01, -1.07894599e-01, -1.19585834e-01,
          -2.41812319e-01, -1.52337566e-01, 5.53010255e-02,
          -4.79801036e-02, -2.88287341e-03, -1.35357678e-01,
          -6.57465449e-03, -1.40291288e-01, -1.67388357e-02,
          -1.72279075e-01, -1.12763248e-01, -7.73371682e-02,
          -4.44988981e-02, 8.61596465e-02, -4.18368280e-02,
          -2.10780576e-02, -1.19671442e-01, -2.06958935e-01,
          -1.13196172e-01, -8.37618783e-02, 3.35532427e-02,
          8.92016292e-02, 1.56004187e-02, 2.13726871e-02,
          -9.93552804e-03, -1.97017506e-01, -4.61128913e-02,
          -8.59168395e-02, -9.54960124e-04, 1.16837751e-02,
          -5.29225171e-02, 8.80811065e-02, -9.84219369e-03,
          6.95782304e-02, 6.21404871e-02, -2.74674427e-02,
          -1.88092917e-01, -1.46156847e-01, -8.09338167e-02,
          -9.97245871e-03, 3.95710245e-02, -9.34849083e-02,
          -2.06623059e-02, -1.07789651e-01, -6.71594813e-02,
          -1.72685146e-01, -9.19915456e-03, -1.87987424e-02,
          -3.57680721e-03, 1.20830731e-02, -7.51081333e-02,
          -3.21628675e-02, -6.15342483e-02, -2.80583519e-02,
          -1.22595001e-02, -2.73020435e-02, -7.09657297e-02,
          4.15393412e-02, -5.61954677e-02, -7.93110766e-03,
          3.80171314e-02, -1.90003850e-02, 4.03124392e-02,
          9.11085308e-02, 9.12469998e-02, 6.31273631e-03, 1.22588076e-01,
          7.49598071e-02, 1.54032275e-01, 3.61306146e-02, 6.04700064e-03,
          -7.87118673e-02, -1.88659430e-01, -4.17573284e-03,
          -2.92801559e-02, -7.07968920e-02, -1.46535203e-01,
          -5.63938580e-02, 1.88938610e-03, 6.86464226e-03,
          -3.05462852e-02, -1.20663822e-01, 6.32306212e-04,
          -3.14893648e-02, -1.09253816e-01, -7.63574615e-02,
          -1.05756782e-01, 1.45427715e-02, -1.37120798e-01,
          -2.83409934e-02, -2.63209399e-02, 8.86540487e-02,
          -6.75332397e-02, 4.89145443e-02, 9.98572260e-03,
          2.86791772e-02, -6.91659451e-02, 4.39081434e-03,
          -1.15486281e-02, -2.75498088e-02, 1.47444429e-02,
          1.11291900e-01, -1.91801116e-02, 3.25068235e-02,
          -6.78246841e-02, -4.25018258e-02, -1.11340657e-01,
          -1.53030425e-01, -3.03243957e-02, -1.76771395e-02,
          -4.82952856e-02, -1.15245461e-01, 3.82488407e-02,
          -2.64408216e-02, -6.48410320e-02, -1.85587227e-01,
          7.59179983e-03, -4.29217331e-02, 8.29064250e-02,
          -4.24156003e-02, -3.49005572e-02, 3.97810303e-02,
          4.81333286e-02, -1.49245083e-01, -2.56957998e-03,
          -5.37132211e-02, -1.05764702e-01, 3.90364453e-02,
          8.62215459e-02, -2.29401123e-02, -7.92536139e-02,
          -1.39428928e-01, -4.46770452e-02, -1.38424128e-01,
          2.32669953e-02, -1.17394015e-01, 1.04371309e-01,
          3.54447514e-02, 2.02786271e-02, 8.69523883e-02, 3.13549787e-02,
          -7.15434551e-02, -2.59310063e-02, -1.09614164e-01,
          -1.88139707e-01, 8.04700404e-02, 1.63098499e-02,
          2.56654508e-02, 4.10236418e-03, -2.36507151e-02,
          -1.68540224e-01, -2.21957229e-02, -3.55326831e-02,
          -1.52017951e-01, 1.71234936e-01, 1.11208096e-01,
          -6.53291270e-02, -6.44375384e-02, 3.30142453e-02,
          -1.15365930e-01, -1.49545409e-02, -9.27224383e-02,
          -2.29666248e-01, 5.38721569e-02, 3.74982618e-02,
          -5.67169301e-02, -3.53651829e-02, 2.19711829e-02,
          -1.10752426e-01, -4.68409397e-02, -1.97421145e-02,
          -8.73194337e-02, 8.27928856e-02, 8.82707238e-02,
          5.74621111e-02, -5.82359545e-02, 1.64467379e-01,
          -3.73029038e-02, 2.37167925e-02, -6.35259449e-02,
          -1.02373183e-01, 2.37691514e-02, 3.03289760e-02,
          -3.52264270e-02, 9.41546187e-02, 1.60514086e-01,
          -5.84662221e-02, 7.75074065e-02, 5.18014282e-02,
          -5.41560091e-02, -3.41010801e-02, 1.14375446e-02,
          7.61694312e-02, 1.02132052e-01, 7.49197900e-02, 2.45604087e-02,
          4.07417491e-02, -9.31458101e-02, -1.39118418e-01,
          -9.00536701e-02, 3.05533782e-02, 3.50691378e-02,
          1.09670132e-01, 8.19433928e-02, -4.06487845e-02,
          4.43659984e-02, 2.00986639e-01, -7.40590915e-02,
          -3.40822712e-02, 9.69678462e-02, 1.06184632e-01,
          1.89456210e-01, 6.13288991e-02, 3.43352407e-02, 7.85348564e-02,
          2.04271793e-01, -3.70240211e-02, 8.30388442e-03,
          1.08868033e-01, -1.72973145e-02, -1.33859385e-02,
          -9.86182014e-04, -9.23347101e-02, -1.07039521e-02,
          1.80797815e-01, -8.98527205e-02, 5.36253229e-02,
          1.22562893e-01, 1.35515392e-01, 9.20512229e-02, 1.41155168e-01,
          7.08116069e-02, 3.06404009e-02, -3.27250399e-02,
          -5.33568896e-02, -6.97898790e-02, 7.09760236e-03,
          -6.00386150e-02, 4.92313085e-03, 2.91439309e-03,
          -4.87844534e-02, -1.37105323e-02, -3.72244455e-02,
          -1.00283623e-01, -9.04685445e-03, -6.89803064e-03,
          -3.31870578e-02, -1.02951350e-02, 7.07774088e-02,
          -2.93410048e-02, -2.57060975e-02, -1.31744249e-02,
          -9.27728042e-02, -7.43334964e-02, -2.23419251e-04,
          4.30504046e-02, 4.41520028e-02, -1.59511995e-02,
          -8.96837786e-02, -6.93902150e-02, -1.34514362e-01,
          6.77889809e-02, -6.16589375e-02, 1.01752497e-01,
          3.68398316e-02, 7.37645179e-02, 1.19948050e-03,
          -1.14148788e-01, 3.69684026e-02, -1.67798355e-01,
          -8.35882649e-02, -1.27712354e-01, -2.25820262e-02,
          -1.59289669e-02, -9.68035311e-02, -3.53596918e-02,
          -1.84373647e-01, 4.58040449e-04, -4.33670692e-02,
          -2.39143252e-01, -7.38656074e-02, 3.74588221e-02,
          1.14320088e-02, -5.35429716e-02, -9.32033882e-02,
          -1.81093514e-01, 3.26436497e-02, -1.16840072e-01,
          2.85712313e-02, -7.33040050e-02, 4.02194485e-02,
          -2.25959644e-01, -1.65236205e-01, -1.62272304e-01,
          -6.51192069e-02, -2.95415963e-03, 8.78356770e-02,
          6.65885508e-02, 7.03276843e-02, 1.38987571e-01,
          -6.04866371e-02, 7.95183033e-02, 9.92130395e-03,
          1.19736187e-01, 4.27743383e-02, -8.64820927e-02,
          -2.92381793e-01, -2.53422946e-01, -1.66102543e-01,
          -2.09383264e-01, -3.05861205e-01, -1.41368449e-01,
          -1.93318218e-01, -8.92630294e-02, 1.56630715e-03,
          1.58116639e-01, 1.06307723e-01, 1.32508725e-01,
          -2.07639650e-01, 3.11988797e-02, 6.13500290e-02,
          7.52452761e-02, 3.64634059e-02, 3.21267582e-02,
          -3.69902998e-02, -8.63376707e-02, 4.90537332e-03,
          -2.04419661e-02, -1.95769463e-02, 3.07626300e-03,
          -6.72747716e-02, -6.67105317e-02, 4.76578474e-02,
          -6.48661628e-02, -4.64257710e-02, -1.57149762e-01,
          -6.20781332e-02, -1.57572869e-02, 9.67489257e-02,
          -8.19000155e-02, -2.99138557e-02, -2.54991595e-02,
          3.93581241e-02, -1.07545458e-01, -6.18940964e-02,
          -1.14253676e-02, -7.92541876e-02, 1.39675224e-02,
          -9.21285246e-03, -4.78370078e-02, 3.83882783e-02,
          6.77392855e-02, -3.89744341e-02, -1.57594040e-01,
          2.47355569e-02, -1.85880527e-01, 1.46225756e-02,
          -8.29434097e-02, 1.52654387e-02, -1.34435073e-01,
          1.15337834e-01, 1.08144321e-01, -1.44571498e-01,
          -3.47200967e-02, -2.93419473e-02, 6.81151301e-02,
          1.87005371e-01, -1.12551160e-01, -1.62638336e-01,
          3.13373879e-02, 2.61817575e-02, 1.98291875e-02,
          -1.29960135e-01, -1.85673013e-02, 5.81038510e-03,
          4.47563678e-02, -1.16648830e-01, -5.80237955e-02,
          1.53315052e-01, 3.25447507e-02, -1.71090718e-02,
          -2.83791702e-02, -4.51321416e-02, 2.45694574e-02,
          1.26525849e-01, -3.51330042e-01, -1.08913355e-01,
          -9.33617800e-02, -3.65784615e-02, -7.70985857e-02,
          -6.63783848e-02, -1.48826269e-02, 6.40006969e-03,
          1.80957243e-02, -1.60736397e-01, -4.18046974e-02,
          2.16022208e-01, 3.13436165e-02, 3.01895719e-02,
          -6.35474548e-02, -3.27769928e-02, -1.05930828e-02,
          1.51920184e-01, 2.34693382e-02, -1.03577621e-01,
          -1.58923134e-01, -2.32253104e-01, -1.45562232e-01,
          -1.52437910e-01, -2.07754150e-01, -1.30411550e-01,
          1.37376168e-03, -2.90688928e-02, -7.73753878e-03,
          2.22006649e-01, -1.05431937e-01, 7.31483009e-03,
          5.35386093e-02, 8.21052864e-03, -6.03428781e-02,
          1.69210061e-01, 1.53535837e-02, -2.04625223e-02,
          3.17719691e-02, -8.83586556e-02, -1.32610038e-01,
          -1.11773469e-01, -2.10480511e-01, -3.01542997e-01,
          -8.14277679e-02, -1.37888538e-02, -1.46628037e-01,
          -1.59331471e-01, -9.02502537e-02, 9.28622484e-02,
          -1.04679260e-02, -8.69997591e-02, -1.80169329e-01,
          -9.49830189e-02, -2.08648756e-01, -9.08945873e-03,
          4.58430052e-02, 4.67525907e-02, 3.41828056e-02, 6.19587898e-02,
          -2.94056833e-02, -6.18313700e-02, -7.97379911e-02,
          -1.49102449e-01, -2.32175887e-01, -9.27827507e-02,
          -1.93386361e-01, -5.49802147e-02, 4.16706204e-02,
          -1.26513466e-03, -2.15966001e-01, -1.84531778e-01,
          -3.57454680e-02, -2.31125683e-01, -1.01565011e-01,
          -1.84239626e-01, -9.65421051e-02, 8.92765149e-02,
          1.70897692e-02, -2.98659261e-02, 3.56732309e-02,
          -1.03697501e-01, 2.84209512e-02, -2.32783750e-01,
          -3.95737171e-01, -1.98119119e-01, -8.64349902e-02,
          -3.80201861e-02, -2.49666676e-01, -1.95381612e-01,
          -6.17591403e-02, 1.56538233e-01, -7.07373098e-02,
          -9.56092179e-02, 2.28248745e-01, 5.78551926e-03,
          6.35666549e-02, -1.02344744e-01, -1.26738742e-01,
          1.63441867e-01, -5.42098433e-02, -1.11946747e-01,
          -3.15266192e-01, -5.01270369e-02, -1.07669473e-01,
          -2.41298467e-01, -3.16086680e-01, -1.97765172e-01,
          -8.57242346e-02, 2.06831291e-01, 1.41268056e-02,
          -1.81703772e-02, 1.38185814e-01, 5.04444651e-02,
          1.30650736e-02, -8.62655267e-02, -3.89497168e-02,
          1.95560619e-01, 3.84814963e-02, -1.98653445e-01,
          -5.64867072e-02, -4.40094993e-03, -2.05350071e-02,
          -6.37726784e-02, -1.41549453e-01, -1.32152706e-01,
          2.66172886e-02, 1.55991822e-01, -7.74121210e-02,
          -4.74552661e-02, 4.58592251e-02, 2.46188581e-01,
          1.35023862e-01, 1.83721036e-02, 9.02766269e-03, 1.24707878e-01,
          -5.16073629e-02, -1.19386859e-01, -9.55651477e-02,
          -7.42535442e-02, 2.06309576e-02, -2.84083262e-02,
          -7.30525777e-02, -1.80731654e-01, 7.38329664e-02,
          3.29030827e-02, 4.43680473e-02, -1.67029537e-02,
          6.38413355e-02, 1.98366955e-01, 9.40497890e-02, 4.96443287e-02,
          -1.82923656e-02, 1.70824155e-01, -6.21940941e-02,
          -1.31023303e-02, -5.88924550e-02, 4.27030725e-04,
          1.02074116e-01, -1.34060653e-02, -3.51499170e-02,
          -1.88724443e-01, -8.16044733e-02, 7.25162998e-02,
          -7.10214600e-02, 1.33515568e-02, 8.35998729e-02,
          -1.33254128e-02, 5.04774600e-02, -2.00845748e-02,
          -3.99523638e-02, -1.69220529e-02, -9.60558578e-02,
          -1.05843529e-01, -5.33294193e-02, 2.73433775e-02,
          1.08721696e-01, 3.88037488e-02, -6.46162778e-02,
          -3.31737250e-02, -6.14380874e-02, 7.57081360e-02,
          -3.59099656e-02, -7.33331889e-02, -2.04397738e-02,
          4.63723838e-02, 1.06836699e-01, -4.35864413e-03,
          2.53793895e-02, 4.61166054e-02, -5.22668213e-02,
          -2.20026791e-01, -1.45744935e-01, 9.17358603e-03,
          5.42631410e-02, -1.17787616e-02, -1.86081696e-02,
          -6.27912432e-02, -9.32875425e-02, 1.00943454e-01,
          -8.71708393e-02, 1.58215128e-02, 2.98356432e-02,
          1.33993313e-01, -6.03130162e-02, -4.14304286e-02,
          -7.32350349e-02, 1.87140450e-01, -1.10666163e-01,
          -9.67415720e-02, -8.79951119e-02, 4.40379679e-02,
          6.95606992e-02, -1.04101775e-02, -2.64042486e-02,
          -9.48599502e-02, -8.77841376e-03, 1.30664408e-01,
          -1.48969106e-02, 1.41554803e-01, 1.87712014e-02,
          1.42891645e-01, -4.15992327e-02, 5.08477017e-02,
          1.09634304e-03, 4.63414378e-02, 9.64425132e-02,
          -7.35953748e-02, 2.38925014e-02, -3.72826792e-02,
          6.78007528e-02, -9.78017673e-02, -7.28875324e-02,
          -1.26271397e-01, 1.02765337e-01, 6.93279579e-02,
          -4.60145660e-02, -9.02192518e-02, -1.32192327e-02,
          -5.13215363e-02, -2.05400772e-02, -1.01944581e-01,
          4.72949706e-02, 2.76105367e-02, 7.11050555e-02,
          -7.60638043e-02, -5.61720990e-02, -7.80167505e-02,
          5.28450757e-02, -1.26863986e-01, -3.21297497e-02,
          -2.45079100e-02, 3.67034264e-02, 8.00932199e-03,
          4.61224988e-02, -8.34094267e-03, 7.43878782e-02,
          -1.22563578e-02, 1.23252682e-02, -1.10687383e-01,
          -5.97271137e-02, 4.91120964e-02, 6.94554970e-02,
          -1.03749029e-01, -8.57500709e-04, -1.43388165e-02,
          -7.22415373e-02, -9.76425931e-02, -5.80881648e-02,
          -1.56145878e-02, 8.95650983e-02, 6.01691566e-02,
          -8.20072219e-02, 1.29792571e-01, 3.43293175e-02,
          5.24880253e-02, 8.47282819e-03, 7.90997520e-02,
          -7.10601360e-02, 8.99480879e-02, -1.34166116e-02,
          2.29750648e-02, -5.00181019e-02, -7.00802281e-02,
          -5.21073788e-02, 2.21031029e-02, 6.18967526e-02,
          -9.74106640e-02, 8.60142261e-02, -2.54399367e-02,
          -9.06494930e-02, -6.22718669e-02, 2.68411543e-02,
          4.54768687e-02, 4.87308837e-02, 5.26852086e-02,
          -1.32133234e-02, 3.21885645e-02, -1.48502693e-01,
          -1.96666107e-01, 2.40960885e-02, 5.87837808e-02,
          1.06900483e-01, 6.97643869e-03, 1.91770084e-02,
          -1.84650850e-02, -1.10346243e-01, -1.59557283e-01,
          -6.11122437e-02, 2.77167317e-02, -1.15996666e-01,
          -7.99763873e-02, -7.76925087e-02, 5.35768606e-02,
          -1.54318899e-01, -1.43780306e-01, -1.07568577e-01,
          -8.68052468e-02, -3.09333038e-02, 1.05893537e-01,
          1.01276442e-01, -1.63214114e-02, -5.97480461e-02,
          -2.38959461e-01, -6.97610015e-03, -3.91001813e-02,
          -9.59784836e-02, 4.02917303e-02, -1.63049493e-02,
          5.15363626e-02, -2.02106368e-02, -4.22958657e-02,
          -2.07203642e-01, -5.43822311e-02, -6.65014386e-02,
          -3.12120281e-02, -8.22842494e-02, -4.43893671e-02,
          -6.89069275e-03, 5.97228520e-02, -7.09591731e-02,
          -6.48959652e-02, -5.27651533e-02, 3.26977335e-02,
          -1.40796229e-01, 3.97656709e-02, 7.52018765e-02,
          1.34373263e-01, 1.29301503e-01, -1.42901465e-01,
          -5.56725487e-02, 1.88355997e-01, 2.74840239e-02,
          9.32053756e-03, -1.09703606e-02, 8.79058465e-02,
          4.51255515e-02, 1.00820825e-01, -6.73653632e-02,
          -1.30935311e-01, -6.86083660e-02, 1.97098598e-01,
          6.93785623e-02, 4.25869673e-02, 1.60208553e-01, 1.68091342e-01,
          1.11354373e-01, -9.25421789e-02, -6.25069439e-02,
          1.31932974e-01, -1.23769842e-01, -1.73426285e-01,
          -7.30220973e-02, -6.25954417e-05, -3.89405317e-03,
          9.17054415e-02, -1.03747076e-03, -8.48888680e-02,
          3.82351354e-02, -1.05316736e-01, 8.88219774e-02,
          8.26668888e-02, 3.12711671e-02, 5.19597270e-02, 2.05138624e-01,
          1.66387171e-01, 7.14851990e-02, 6.42241165e-02, 1.16989888e-01,
          -3.31061780e-02, -3.92427444e-02, -2.06441674e-02,
          -5.20368107e-02, -2.59186290e-02, -8.57431814e-02,
          -1.19666293e-01, -8.12090635e-02, 2.49671131e-01,
          2.86631286e-02, 6.42135069e-02, 6.69872314e-02,
          -7.19893649e-02, 5.23580164e-02, 1.21068910e-01,
          -4.23072465e-02, -6.73541278e-02, -1.83033139e-01,
          5.13932034e-02, -5.00252731e-02, -2.48884745e-02,
          -1.29692525e-01, -6.17471822e-02, -5.48543222e-02,
          -6.41553709e-03, -3.37809399e-02, 6.44370494e-03,
          -1.14034429e-01, -8.79543722e-02, 8.46569315e-02,
          -3.19745056e-02, -3.43433954e-02, 2.52645705e-02,
          7.99873471e-02, -5.47356158e-02, -5.10276668e-03,
          -4.24642637e-02, -9.81687456e-02, 5.19043021e-02,
          -1.09435581e-01, -1.24940038e-01, -6.18258938e-02,
          -5.41287139e-02, -1.93122268e-01, -1.45474643e-01,
          1.60867367e-02, -6.43184502e-03, 7.62040168e-02,
          -3.21962722e-02, -2.40677558e-02, 1.53506426e-02,
          -1.26785472e-01, -2.72934623e-02, -5.80156818e-02,
          -1.38773590e-01, -1.01985335e-01, -9.56628546e-02,
          -1.29719496e-01, -2.62478173e-01, -9.82727781e-02,
          -1.20117553e-01, -1.58031389e-01, 8.51472914e-02,
          7.41981789e-02, 1.72334369e-02, -3.97942066e-02,
          -2.87552059e-01, 4.09199186e-02, 6.34975135e-02,
          6.57291040e-02, 6.46845326e-02, -1.41934603e-01,
          -1.29014701e-01, -1.14423871e-01, -1.44032046e-01,
          -9.68429595e-02, -8.65132362e-02, -5.56594506e-02,
          -1.80735901e-01, -1.65074393e-01, 2.58040167e-02,
          4.41918373e-02, 9.62159112e-02, 1.07177749e-01,
          -9.66468453e-02, 1.74505487e-01, 1.24314211e-01,
          2.99230777e-02, 2.31965221e-02, -3.82812619e-02,
          2.99733318e-02, -7.88523778e-02, -1.63581055e-02,
          5.40481582e-02, -6.73193038e-02, -1.34358853e-02,
          5.23545034e-02, -7.45969126e-03, -1.22078238e-02,
          -1.28249098e-02, -6.02628887e-02, -8.06289166e-02,
          -7.91999884e-03, -8.00309181e-02, -5.34601770e-02,
          -2.47144494e-02, 6.41976595e-02, -8.13223943e-02,
          -4.09643538e-02, 9.03272070e-04, -5.83640039e-02,
          9.73131582e-02, -9.02793184e-02, -1.53904147e-02,
          -1.96467596e-03, -5.23719080e-02, 5.98661378e-02,
          -3.66703011e-02, -8.85045826e-02, -1.20408863e-01,
          6.27631247e-02, 3.82151902e-02, 1.41764516e-02, 6.38291687e-02,
          -2.00541355e-02, -2.11063966e-01, 8.36279020e-02,
          -6.72858655e-02, -1.69707164e-02, -1.78178146e-01,
          -3.43628749e-02, -3.83691229e-02, 1.03655048e-01,
          -2.33195007e-01, -7.62929022e-02, 7.45167350e-03,
          -2.29042489e-02, -3.06981057e-02, 5.95170539e-03,
          -7.63502419e-02, -7.40853474e-02, 7.32033849e-02,
          -1.24594441e-03, -1.13193005e-01, -2.37247329e-02,
          -2.52532940e-02, -8.29369649e-02, -9.66436043e-03,
          -1.56429321e-01, -3.98254357e-02, 1.78326935e-01,
          -5.38625196e-02, -1.37571648e-01, -9.87526774e-02,
          2.38139480e-02, 5.01819625e-02, 5.66134695e-03,
          -6.46138117e-02, -2.48683821e-02, 8.60536620e-02,
          -1.30110842e-04, -4.66249846e-02, 2.16612652e-01,
          1.45925665e-02, -3.31659019e-02, -1.15995996e-01,
          -7.56724775e-02, -6.15987666e-02, 9.00493711e-02,
          1.46671841e-02, -1.61630332e-01, 4.61111329e-02,
          -4.31013927e-02, -5.95990233e-02, -2.31025711e-01,
          -1.87051758e-01, -3.63498837e-01, -7.68345892e-02,
          -1.10645562e-01, -1.71830446e-01, 7.90163204e-02,
          -3.38835679e-02, 1.57423615e-02, -7.32723847e-02,
          -7.54694715e-02, 3.08844764e-02, 1.13057576e-01,
          -1.29082724e-01, -1.52996749e-01, 5.39605543e-02,
          5.51988222e-02, 7.80556574e-02, 8.37955326e-02,
          -2.75470186e-02, 6.47035241e-02, -1.93318930e-02,
          -5.90794235e-02, -1.56567872e-01, -4.38527949e-02,
          -2.23085918e-02, 2.68931594e-02, -9.79179218e-02,
          6.96863383e-02, -1.71770658e-02, -1.01144269e-01,
          -4.85197455e-02, -2.33451992e-01, -7.55078793e-02,
          -1.06852442e-01, -1.08960271e-01, -8.63811597e-02,
          -3.91550660e-02, -5.62167391e-02, -5.33587337e-02,
          -7.12214410e-02, -1.40760625e-02, 6.97176456e-02,
          1.22177735e-01, 8.79676715e-02, 6.68961406e-02,
          -1.24812126e-03, 1.12377569e-01, -7.13663474e-02,
          4.21583392e-02, -8.63985047e-02, 1.88670289e-02,
          2.48937458e-02, -2.35868827e-03, -7.87617639e-02,
          7.65603548e-03, 1.22482002e-01, 2.72480939e-02, 8.71098193e-04,
          -7.17464611e-02, 1.37818968e-02, -1.11946344e-01,
          9.41079110e-02, -4.86511737e-03, -2.23921269e-01,
          -2.82471925e-01, -2.27628127e-01, -1.56565964e-01,
          -2.77698599e-03, -1.60072193e-01, -4.33355570e-02,
          1.54884579e-02, 7.01802075e-02, -2.20269710e-02,
          -2.54126966e-01, -2.04920843e-01, -7.31683597e-02,
          -1.90116540e-02, -3.87438796e-02, -1.12563610e-01,
          5.38766235e-02, 8.95897225e-02, -6.47184923e-02,
          -2.30485186e-01, 7.48594254e-02, 5.32939322e-02,
          1.19559117e-01, -6.22622203e-03, -2.22379528e-03,
          1.23940706e-02, 4.02457863e-02, -3.11271362e-02,
          -1.76325068e-01, -3.09874397e-03, 1.09370664e-01,
          2.44376380e-02, -8.99392962e-02, -1.40097305e-01,
          1.90441180e-02, 6.55797198e-02, 1.92650333e-01, 1.35576781e-02,
          -1.53493345e-01, -1.20088123e-01, -2.03202292e-02,
          4.69476208e-02, 2.83364374e-02, 4.10805196e-02, 1.12913679e-02,
          7.99057409e-02, 7.87804574e-02, 6.22416250e-02, 8.11143592e-02,
          -9.91008729e-02, -6.48691952e-02, 1.43641718e-02,
          8.38328302e-02, -8.85515511e-02, 1.44947832e-02,
          -9.22494754e-02, -2.38366097e-01, -3.96794267e-02,
          -5.69045283e-02, 5.33154383e-02, 3.58514339e-02,
          5.96135817e-02, -6.66290969e-02, -1.94929894e-02,
          2.27607246e-02, -3.29047814e-02, 1.51031807e-01,
          -9.14100111e-02, 6.98628351e-02, -1.12892967e-02,
          -6.83066528e-03, -5.74433524e-03, 5.85194118e-02,
          7.43444636e-02, -2.38707885e-02, -9.59434435e-02,
          6.84159473e-02, 8.87816250e-02, -1.31655699e-02,
          3.37281153e-02, 5.54504693e-02, 6.05139509e-02, 5.98089246e-04,
          -5.86709715e-02, -7.52759501e-02, -8.91676322e-02,
          -3.37118357e-02, -1.06987007e-01, -7.31630251e-02,
          -5.98712303e-02, 9.80505571e-02, -5.76253980e-03,
          -1.71647996e-01, 5.31761684e-02, 4.22051698e-02,
          -1.69772245e-02, 2.80986782e-02, 4.07513417e-02,
          4.41884436e-02, 4.77925986e-02, -1.27883986e-01,
          -1.99961588e-01, 7.06371143e-02, 8.29250962e-02,
          8.73602703e-02, -6.89146016e-03, 9.34644137e-03,
          1.23974659e-01, 8.46226886e-03, 2.12995429e-02, 3.13235149e-02,
          -6.15360700e-02, 1.27542302e-01, 1.17595039e-01,
          6.71572834e-02, -1.89531292e-03, 1.04346760e-01,
          -2.76740678e-02, 1.34034410e-01, 2.22963654e-02,
          5.48358671e-02, -7.32065812e-02, -4.00933530e-03,
          -2.83764489e-02, 3.16993631e-02, 1.45246729e-01,
          5.46211889e-03, -4.24442291e-02, -9.33002904e-02,
          -9.83067323e-03, -1.78353041e-01, 8.62852111e-02,
          -7.35037625e-02, -1.42745683e-02, 1.55462157e-02,
          -3.03191058e-02, -3.64010525e-03, -2.22429246e-01,
          -9.02313814e-02, 2.35785674e-02, -2.99564116e-02,
          -6.84222728e-02, -8.18783417e-02, -3.00897174e-02,
          -6.98417947e-02, 7.65536055e-02, -1.15873799e-01,
          -8.71780068e-02, -2.67416593e-02, 1.00442376e-02,
          2.09951494e-02, 1.76293835e-01, 8.43850747e-02, 1.52803838e-01,
          -5.78965060e-02, -4.74625342e-02, -6.64562061e-02,
          -1.71088323e-01, 6.99480111e-03, -9.69451889e-02,
          -4.59247455e-02, -5.52379861e-02, 1.41184162e-02,
          1.80706941e-02, -1.77729934e-01, -1.23699464e-01,
          -1.18085273e-01, -1.93695780e-02, -1.20214470e-01,
          -2.32815556e-02, -1.07863694e-01, -3.52372937e-02,
          -1.15319164e-02, -1.62627891e-01, 1.59497317e-02,
          -9.54161882e-02, -1.31275197e-02, -7.92793930e-02,
          4.23304457e-03, 7.63883861e-03, -5.83481742e-03,
          -3.00957486e-02, -1.52605787e-01, -6.73935339e-02,
          -1.17342241e-01, -1.63879599e-02, -1.07428543e-02,
          1.45353809e-01, 8.89667682e-03, -4.71078493e-02,
          6.79052621e-02, -1.25377148e-01, 1.74645521e-02,
          -8.44571590e-02, -3.71694081e-02, -1.31091669e-01,
          2.54167914e-02, -7.08623081e-02, -7.45910406e-02,
          -3.07919383e-02, -8.46399367e-02, -9.41063464e-02,
          -2.65924800e-02, -1.15623467e-01, -2.18148855e-03,
          7.69694448e-02, -4.02755924e-02, -4.17351201e-02,
          5.50154708e-02, -9.66456980e-02, 2.70661116e-02,
          -1.52923778e-01, -7.85573646e-02, -8.52004252e-03,
          6.18768157e-03, -1.63061380e-01, -1.72784869e-02,
          -7.32772239e-03, -2.42614359e-01, -3.19219790e-02,
          -9.47768837e-02, -8.30403492e-02, 1.33017659e-01,
          -4.09417190e-02, 1.03302456e-01, 1.45989090e-01,
          1.00951277e-01, -1.88893646e-01, -1.22668389e-02,
          -1.00151695e-01, -8.91938508e-02, -2.23284829e-02,
          -9.28886011e-02, -1.38895392e-01, -4.15488854e-02,
          -5.86524531e-02, -1.86126888e-01, -5.09494841e-02,
          1.00500181e-01, 2.12525520e-02, -1.85947698e-02,
          -1.15040004e-01, -2.58662887e-02, 3.05890525e-03,
          7.75026754e-02, -6.72067851e-02, 5.69543764e-02,
          -4.60825786e-02, -2.75828131e-02, 1.14778168e-01,
          7.37226233e-02, 5.48638143e-02, 1.29112855e-01, 4.66056122e-03,
          -1.10019587e-01, -2.37449463e-02, -3.27915102e-02,
          -1.42846443e-03, 4.50384580e-02, 1.91799760e-01,
          1.81425080e-01, 1.58421725e-01, -3.41104902e-02,
          5.71926460e-02, 1.44619197e-01, 1.25490382e-01, 8.41822922e-02,
          2.91352421e-02, -6.01491705e-02, -6.67802766e-02,
          -5.66807799e-02, -1.99301150e-02, -1.62829049e-02,
          -1.21816829e-01, -2.19754074e-02, 9.33848396e-02,
          5.08149043e-02, 1.51534185e-01, 1.74764901e-01, 7.01801777e-02,
          -1.35741942e-02, 3.47077772e-02, 9.57355350e-02,
          -1.83525994e-01, -6.45549893e-02, -2.78127007e-02,
          -6.07376844e-02, -5.73129654e-02, -1.87273305e-02,
          -4.28480096e-02, -6.28361329e-02, -8.25938359e-02,
          -5.74221946e-02, -7.32044354e-02, -2.59010084e-02,
          -4.30950150e-02, -1.47439563e-03, -5.54675944e-02,
          -6.31027818e-02, -1.65458024e-01, -1.92462638e-01,
          -1.11216508e-01, -3.98960859e-02, 8.28792006e-02,
          1.07960373e-01, 6.43915311e-02, 1.09264739e-01,
          -3.89801152e-02, 5.52452020e-02, 3.91759500e-02,
          2.27511991e-02, 1.56256016e-02, 1.63241297e-01, 1.42460749e-01,
          1.35164738e-01, 1.34834123e-03, -2.57860068e-02,
          -8.79339948e-02, 1.75923109e-01, -9.44754034e-02,
          -2.52474785e-01, -1.66395903e-01, -9.74333435e-02,
          -8.41653720e-02, -1.13638379e-01, -1.63246542e-01,
          -1.21444717e-01, -1.39412984e-01, -1.55785054e-01,
          -2.03475967e-01, -1.67509958e-01, -1.14959128e-01,
          -5.69448508e-02, -7.73716420e-02, -3.91679965e-02,
          -1.08714320e-01, -1.06545053e-01, -1.60875786e-02,
          -4.33929637e-02, -1.14792295e-01, -4.64227702e-03,
          -6.42329976e-02, -3.68370414e-02, -8.15383811e-03,
          -9.12407562e-02, -1.24883056e-01, 6.62219226e-02,
          2.14940570e-02, -1.06896952e-01, -5.17644919e-02,
          2.99092829e-02, 6.26447285e-03, -5.56999668e-02,
          -5.36501072e-02, -4.28306721e-02, -1.45932361e-01,
          -6.34751469e-02, -1.67976022e-01, -2.60186315e-01,
          -2.67577678e-01, -3.03786665e-01, -2.32893541e-01,
          -2.49556273e-01, -2.00281441e-01, 1.11375242e-01,
          1.42579243e-01, 8.09001997e-02, 4.11753403e-03,
          -1.96337909e-01, 8.75406712e-02, 2.25015394e-02,
          4.85634357e-02, -1.59107000e-02, -1.82040691e-01,
          -6.55559301e-02, -3.11450899e-01, -1.64665952e-01,
          -1.29689321e-01, -1.35645792e-02, -7.74652362e-02,
          -8.02820623e-02, -4.15058546e-02, 2.25316230e-02,
          7.47587234e-02, -6.51887357e-02, 7.97371641e-02,
          -2.92643160e-02, 6.56395257e-02, 7.52134621e-03,
          1.94073431e-02, 1.19101875e-01, -4.99301180e-02,
          3.40822116e-02, 6.58584088e-02, -8.65308642e-02,
          -6.31538406e-02, -4.51340750e-02, -6.40708059e-02,
          3.99909867e-03, -3.50470766e-02, 1.26495585e-01,
          1.25373174e-02, 1.28573611e-01, -9.91794169e-02,
          2.75407806e-02, -4.55395598e-03, 6.54519051e-02,
          5.63357100e-02, 1.22394711e-01, -1.04506858e-01,
          -8.45591798e-02, -1.27602085e-01, -2.95157358e-02,
          4.57048081e-02, -4.61965315e-02, -8.28076079e-02,
          -2.72496440e-03, -2.86986437e-02, -2.64851637e-02,
          1.04523636e-03, -1.87046244e-03, -1.18574396e-01,
          7.95134455e-02, -4.28602509e-02, 1.04392536e-01,
          3.63941789e-02, 3.71310227e-02, -2.28115898e-02,
          1.67764813e-01, -1.44519592e-02, 6.13781586e-02,
          6.43115938e-02, -2.82155983e-02, -4.87647504e-02,
          4.19183746e-02, 6.50953650e-02, -1.07039679e-02,
          -7.96897709e-02, -1.16070472e-01, -5.05263098e-02,
          -6.51029795e-02, -2.71834270e-03, -1.43558577e-01,
          -2.57399473e-02, -5.24875261e-02, -2.06501663e-01,
          7.46289715e-02, -2.41311770e-02, -5.57492413e-02,
          -3.71078029e-02, 1.80187281e-02, 1.20806368e-02,
          -1.94838215e-02, -1.23652808e-01, -2.61860117e-02,
          -6.25141859e-02, -7.65307248e-02, 8.68198927e-03,
          -1.52657211e-01, -5.41394614e-02, -6.75680116e-02,
          -4.43024747e-03, -5.74164763e-02, 4.91085351e-02,
          9.99696478e-02, -2.22104434e-02, -4.10403907e-02,
          -8.20091292e-02, 3.66872400e-02, 4.80691269e-02,
          4.28804941e-02, -8.21919590e-02, 7.02262521e-02,
          2.47744210e-02, -9.23988782e-03, -9.81825739e-02,
          -9.85038951e-02, 2.31616311e-02, 7.03819841e-02,
          -6.28941059e-02, -6.10944210e-03, -3.34551409e-02,
          -1.46973496e-02, -2.64910981e-02, 6.31272793e-02,
          -6.04127124e-02, -2.69862395e-02, 5.41331731e-02,
          6.67853504e-02, -1.82593599e-01, -1.40759423e-01,
          -1.73418336e-02, -6.66205958e-03, -2.23710146e-02,
          1.31600760e-02, 4.33266908e-03, 2.22428963e-02, 1.98887717e-02,
          -5.36105186e-02, -1.13037080e-02, -5.68288676e-02,
          -3.76929492e-02, -1.07905470e-01, -1.95264503e-01,
          1.86546072e-02, 8.86338949e-02, -1.32043645e-01,
          -4.18861397e-02, -4.05871496e-02, -9.91621763e-02,
          2.33526751e-02, 6.02100939e-02, -1.78362817e-01,
          4.95928600e-02, 4.11366336e-02, -6.59268647e-02,
          -2.07719039e-02, -4.76792678e-02, -4.24074642e-02,
          -6.82214424e-02, -1.11379869e-01, -3.01620527e-03,
          -4.96678054e-02, 5.65227866e-02, 1.48181513e-01,
          -1.46201001e-02, -1.20931178e-01, -1.11964913e-02,
          5.41815199e-02, 2.99436357e-02, 5.39704151e-02,
          -2.66931262e-02, -1.41379178e-01, 9.69541147e-02,
          -1.43998694e-02, -2.94710090e-03, 3.33055034e-02,
          -9.56366882e-02, -1.21102128e-02, 4.56495993e-02,
          -1.65683832e-02, -1.43619001e-01, 3.53378914e-02,
          -9.59089547e-02, 4.45542559e-02, 5.46506681e-02,
          -1.67813394e-02, 1.37888957e-02, 1.36393476e-02,
          5.69535233e-02, 2.42481399e-02, -1.59786269e-02,
          8.73617232e-02, -6.53965920e-02, 6.89793751e-02,
          -5.67226969e-02, -5.09748571e-02, 4.23565768e-02,
          4.19787765e-02, -6.12918213e-02, 6.41604960e-02,
          -2.78356150e-02, -4.39413935e-02, 1.15140053e-02,
          -4.09900732e-02, 4.60090786e-02, 4.95075472e-02,
          -1.56625523e-03, -4.84106876e-02, 1.26669794e-01,
          2.84270551e-02, -4.00010049e-02, -3.62709910e-02,
          7.99361020e-02, 7.35713243e-02, -1.27694860e-01,
          2.38181315e-02, 1.49811551e-01, -1.52239919e-01,
          -1.80747390e-01, -9.10388976e-02, 6.03832863e-02,
          2.91026030e-02, 2.69960742e-02, 1.26499487e-02,
          -2.03067921e-02, 9.19363126e-02, -4.14871871e-02,
          -5.33449231e-03, -3.58816385e-02, -7.80618489e-02,
          2.33531035e-02, 6.96159303e-02, -3.29670124e-02,
          -3.41671705e-02, -3.11396085e-02, -3.88054550e-02,
          3.06100193e-02, 5.25581948e-02, 3.29562798e-02,
          -7.35941902e-02, -4.59321104e-02, 4.45922054e-02,
          -8.44769403e-02, 9.06635299e-02, -1.91750210e-02,
          5.37427254e-02, -9.21019092e-02, -8.23550895e-02,
          -5.05543463e-02, 1.61445551e-02, -9.65784937e-02,
          6.21082038e-02, 5.74282072e-02, -2.17390239e-01,
          -1.83838159e-02, -4.33912612e-02, -5.17867766e-02,
          -9.15214568e-02, -2.15835292e-02, -1.20391145e-01,
          5.19872904e-02, 9.05169547e-03, -6.95172548e-02,
          1.04893863e-01, -5.63556924e-02, 1.32141169e-04,
          -3.74980979e-02, -3.15104909e-02, -1.17774054e-01,
          -2.26532016e-02, 6.46604970e-02, -5.61747961e-02,
          -5.43540865e-02, 5.87510057e-02, 3.27686258e-02,
          1.11098863e-01, 1.35347217e-01, -1.08980723e-02,
          1.08986837e-03, -8.43266118e-03, -4.94792610e-02,
          -1.16865635e-01, -1.48945972e-01, -9.11816210e-02,
          -1.23691164e-01, -8.49952176e-02, -2.81259473e-02,
          2.00628012e-04, 6.34557232e-02, 3.40890931e-03,
          -8.06987509e-02, -9.56671163e-02, -3.12906057e-02,
          -8.59711468e-02, 8.34641904e-02, 5.41877188e-02,
          7.34201893e-02, -3.61831486e-02, -4.88524623e-02,
          -7.12023601e-02, -6.09347448e-02, 2.51211878e-02,
          5.14572412e-02, -1.88717321e-02, -2.87333075e-02,
          -7.85399377e-02, -6.39038533e-02, 2.44368613e-02,
          -2.03337055e-02, -3.08418293e-02, 2.67320164e-02,
          -1.63700897e-02, 8.04258958e-02, -1.03778116e-01,
          8.92380625e-03, -4.76476829e-03, 4.99702469e-02,
          3.72298667e-03, -1.22657875e-02, 5.37191629e-02,
          -7.26964623e-02, 1.64805725e-02, -2.11452823e-02,
          -3.22603770e-02, -8.50917026e-02, -1.48472963e-02,
          -8.70054215e-02, -3.59193720e-02, -7.76121914e-02,
          -7.31478781e-02, -5.77043183e-02, -1.53587461e-01,
          -9.46510434e-02, 7.97444656e-02, -8.12450126e-02,
          -1.36927208e-02, 9.64864939e-02, 4.83909845e-02,
          -1.61950327e-02, -1.39178727e-02, -3.28578092e-02,
          -9.61882155e-03, -4.94935662e-02, 6.12473534e-03,
          2.19148900e-02, -1.00844629e-01, -7.52918422e-02,
          9.32438746e-02, 3.82579491e-02, 2.19432097e-02,
          -1.04984334e-02, 5.02495132e-02, 7.38553405e-02,
          7.98914880e-02, -4.65461463e-02, -6.54595941e-02,
          -8.60721394e-02, -9.12050232e-02, -7.02718496e-02,
          -6.65155277e-02, 8.84775072e-02, -6.93671331e-02,
          -1.33396059e-01, 5.29449135e-02, 4.36101258e-02,
          2.10871827e-02, -3.32894921e-02, -1.29561145e-02,
          1.66912880e-02, -4.82113883e-02, 3.15975957e-02,
          1.25581279e-01, -2.09913328e-01, -2.77394317e-02,
          6.56429306e-02, 9.10157431e-03, -5.10078762e-03,
          -2.10816748e-02, 1.46415746e-02, 2.38949992e-02,
          -3.62511054e-02, 4.89220321e-02, 7.09802955e-02,
          2.99198483e-03, -2.92194746e-02, 5.55108534e-03,
          3.01022679e-02, 5.12839220e-02, 5.17947264e-02, 3.57429646e-02,
          -4.21676598e-03, -7.03253895e-02, -1.25994598e-02,
          -2.77413130e-02, -1.02651745e-01, -2.63268463e-02,
          -7.13247433e-02, 5.67290336e-02, -5.16081154e-02,
          -5.49195819e-02, 2.51782220e-02, 2.81208884e-02,
          6.73695654e-02, -1.42352954e-01, -7.13094100e-02,
          -3.06381378e-02, -5.44679239e-02, -1.95329590e-03,
          -1.68220371e-01, -3.51715535e-02, -7.87759870e-02,
          5.74276969e-02, -8.54639634e-02, -8.77117366e-02,
          -1.84345935e-02, 1.79726053e-02, 4.04927433e-02,
          1.45243347e-01, -7.86205521e-04, 1.18938096e-01,
          1.25132248e-01, -7.03041703e-02, -3.35127972e-02,
          3.22859436e-02, 2.35376810e-03, 1.60793170e-01,
          -4.33422774e-02, -8.61707404e-02, -3.49890441e-02,
          -8.77806544e-03, -1.04014374e-01, -8.87425765e-02,
          -5.77806421e-02, -3.75062712e-02, -6.79954737e-02,
          1.10445373e-01, 6.89315870e-02, -3.17121521e-02,
          1.20300008e-02, -4.25237343e-02, 7.59823667e-03,
          -3.37415226e-02, 4.48902287e-02, 8.81683826e-02,
          4.94790040e-02, -9.79542360e-02, -4.56726924e-02,
          1.76699199e-02, -5.73167503e-02, 2.37168018e-02,
          5.41961938e-02, 1.58332437e-02, 4.08253558e-02, 1.09370291e-01,
          1.34656206e-01, -1.42397266e-02, -2.87366603e-02,
          2.05409974e-02, 3.77589464e-02, 3.73191722e-02, 1.11931160e-01,
          2.91834679e-02, -7.60983005e-02, 7.07226107e-03,
          -4.37701531e-02, -1.14821360e-01, -1.62334859e-01,
          -3.81092951e-02, -7.95983747e-02, -1.37566626e-01,
          -1.36366608e-02, -4.21483777e-02, -4.38506790e-02,
          8.92914906e-02, 6.68050349e-02, -1.18755691e-01,
          -7.75671601e-02, -3.85057367e-03, -6.90156445e-02,
          2.40572989e-02, -1.08295763e-02, 2.17388663e-02,
          -1.27791977e-02, -1.56417899e-02, -3.51165943e-02,
          -1.47590682e-01, -6.48248568e-02, 3.28522809e-02,
          -1.56764388e-01, 2.19721999e-02, 2.88950633e-02,
          9.08292755e-02, 1.06877975e-01, -9.87744611e-03,
          2.23773830e-02, 7.43333325e-02, 9.18280706e-02, 8.35794881e-02,
          -7.11964909e-03, -7.71722868e-02, -1.02172270e-01,
          -1.69095948e-01, -1.96810186e-01, -1.17758214e-01,
          1.26945257e-01, -7.41655156e-02, -1.69770643e-02,
          6.55563250e-02, -1.10555552e-02, -6.43758569e-03,
          -1.16116211e-01, 5.52910827e-02, 5.44944406e-03,
          -6.45720661e-02, -4.39469777e-02, 2.79737953e-02,
          1.91013385e-02, -1.83929980e-03, 1.88384894e-02,
          -5.51874153e-02, -2.34203916e-02, -6.00755550e-02,
          4.60502245e-02, 8.93372148e-02, 5.54212742e-02, 3.83685902e-02,
          -1.50839528e-02, 6.90409094e-02, -1.42725306e-02,
          4.28552330e-02, 1.06372625e-01, 1.46180242e-01, 2.86886878e-02,
          1.93642497e-01, -1.51228234e-01, -5.49067743e-02,
          -1.55683443e-01, -1.49346262e-01, -1.16182335e-01,
          -7.73125961e-02, -3.20628732e-01, -1.49211168e-01,
          -1.62647486e-01, 5.30435611e-03, 1.85245480e-02,
          -3.07401922e-03, -1.54730931e-01, -1.08558983e-01,
          -5.30244336e-02, -2.62985211e-02, 3.40521261e-02,
          2.70962454e-02, 2.53949463e-02, -3.74586433e-02,
          1.02678567e-01, -1.68287344e-02, 6.17931373e-02,
          -2.95621138e-02, -3.20879221e-02, 4.58367839e-02,
          -6.52378201e-02, -3.15683782e-02, 8.66267011e-02,
          6.18819445e-02, 7.23816678e-02, 1.65169332e-02,
          -2.42177416e-02, 5.67342266e-02, 1.18500151e-01,
          1.41356234e-02, -9.82599333e-02, -8.20010379e-02,
          -3.26772705e-02, 3.82067403e-03, -4.46462072e-02,
          -1.14289001e-01, -2.82836258e-02, 4.57117781e-02,
          -3.64476293e-02, -4.30911668e-02, -3.97855341e-02,
          -5.99948652e-02, -2.44058222e-01, -7.03883991e-02,
          5.70569523e-02, 7.99762383e-02, 4.58660834e-02, 3.52562778e-02,
          -3.11635640e-02, 6.99482039e-02, 4.01483625e-02,
          6.23971131e-03, 5.42196399e-03, -3.60698849e-02,
          -7.42407367e-02, -2.51746904e-02, 1.73300896e-02,
          4.92032543e-02, 3.46885324e-02, 3.33708413e-02,
          -1.36051983e-01, -4.29308265e-02, -7.26169068e-03,
          1.19573310e-01, -9.40515008e-03, -8.17591045e-03,
          -7.68361017e-02, 8.96646976e-02, 3.53726745e-02,
          -3.10609713e-02, 5.38245626e-02, 9.17736255e-03,
          1.56815238e-02, 9.11525264e-02, -3.95645015e-02,
          4.11465429e-02, -3.20526073e-03, -8.56810361e-02,
          -3.11439876e-02, -9.66427848e-03, -4.43957523e-02,
          -8.40612745e-04, -3.46576013e-02, -4.30801138e-02,
          -7.36891618e-03, 2.70074960e-02, 2.31354050e-02,
          -3.39373760e-02, -5.13249598e-02, 4.44991663e-02,
          9.89042744e-02, 1.16480827e-01, -6.97092935e-02,
          -8.21614712e-02, 1.02922238e-01, -4.62729409e-02,
          -1.16062060e-01, -1.10389017e-01, -1.02827661e-01,
          -7.57739320e-02, -5.57600223e-02, -1.58046931e-01,
          2.84872130e-02, -5.44399135e-02, -7.42381662e-02,
          -2.32598232e-03, -1.18280500e-01, -1.20005809e-01,
          4.94038570e-04, 6.46170899e-02, -9.04334560e-02,
          -1.05932720e-01, -6.61134645e-02, -1.89677831e-02,
          3.39976326e-02, -1.00972079e-01, -1.50296524e-01,
          -1.08640537e-01, -5.76159023e-02, -7.22789541e-02,
          -2.61263289e-02, 8.56699701e-03, 3.60241681e-02,
          -6.54660240e-02, -5.37296422e-02, -7.49385729e-03,
          5.94453439e-02, 1.01841629e-01, -9.86510068e-02,
          5.29400297e-02, 3.64308804e-02, 7.14287385e-02, 4.39152122e-02,
          4.70274724e-02, -5.01475558e-02, -2.70985928e-03,
          2.37870310e-02, -1.79827623e-02, 2.25432366e-02,
          -4.91963401e-02, 1.28567293e-02, -2.83444989e-02,
          -1.13162413e-01, -1.29228875e-01, -1.13264836e-01,
          -4.59154136e-03, 7.16318958e-04, -2.30851443e-03,
          -3.75238732e-02, 8.72010663e-02, -2.41350681e-02,
          -1.34554710e-02, 2.73271929e-02, -1.65937826e-01,
          -1.06572047e-01, 8.87426510e-02, -4.05015126e-02,
          -1.15701117e-01, -5.65868206e-02, -6.52884319e-02,
          -7.06496357e-04, -1.15989640e-01, 1.75731629e-02,
          1.73931494e-02, -5.58804274e-02, -3.41773704e-02,
          -7.69231617e-02, -4.40169424e-02, -1.23124301e-01,
          -6.56265989e-02, -6.46498054e-02, 1.56558797e-01,
          1.53471027e-02, 4.89404774e-04, -1.44516572e-01,
          -1.74514372e-02, 2.46221554e-02, -1.36865862e-02,
          -2.28057783e-02, 1.13120414e-01, -1.13131911e-01,
          -3.32562737e-02, 5.68554327e-02, -6.75690323e-02,
          -3.57467607e-02, 1.48367630e-02, 8.21962729e-02,
          -3.38205658e-02, 2.89937723e-02, -1.24842577e-01,
          4.95956764e-02, -1.23971123e-02, -9.21767280e-02,
          5.11292666e-02, 9.91810337e-02, -2.74810637e-03,
          3.88445519e-02, -3.63986008e-02, -8.27608332e-02,
          -1.24898367e-02, -1.54759921e-02, 1.04571525e-02,
          8.29456598e-02, -3.97610515e-02, 2.21792981e-02,
          7.63513073e-02, 1.00045586e-02, -1.56765021e-02,
          3.10309529e-02, -8.78145397e-02, -2.36223172e-02,
          -5.13891988e-02, -6.99322000e-02, 4.30902019e-02,
          -1.22527026e-01, 1.36908544e-02, -1.38990313e-01,
          -3.92205082e-02, -3.00419680e-03, 9.46415216e-02,
          5.91285620e-03, -1.23811231e-04, -1.41240368e-02,
          3.66713516e-02, 1.11095943e-02, 1.46667175e-02,
          -7.09387660e-02, 6.06372058e-02, -1.29716014e-02,
          3.93202081e-02, -1.06563590e-01, -8.52261111e-02,
          -1.44802228e-01, 8.10073316e-02, 1.26900852e-01,
          -4.63531502e-02, 9.84634086e-03, 7.56774023e-02,
          -7.47568905e-02, 1.07179500e-01, -7.47443140e-02,
          2.84298491e-02, 5.91156110e-02, 3.20540294e-02,
          -3.05339303e-02, 2.38672718e-02, 6.46743178e-02,
          -1.18994318e-01, -4.82173562e-02, 2.14109886e-02,
          -1.82808578e-01, -6.59284275e-03, 5.33328429e-02,
          8.64632726e-02, 1.22088701e-01, -2.45238498e-05,
          -3.56260501e-02, -4.44717743e-02, 5.60802072e-02,
          -4.74235490e-02, -8.36563855e-02, 4.18075509e-02,
          5.18196672e-02, -2.62836087e-02, -8.18575174e-02,
          -3.81690711e-02, 1.11611798e-01, 7.39101991e-02,
          2.59814318e-02, 1.07985418e-02, -2.80153360e-02,
          -1.61944842e-03, -8.09310749e-02, -2.77542993e-02,
          -3.16587649e-02, 9.78388488e-02, 3.54871266e-02,
          1.37070436e-02, -1.03419185e-01, 7.37830158e-03,
          2.78646145e-02, -2.24137586e-02, -9.59957205e-03,
          5.61036691e-02, -4.96737845e-02, 2.49780528e-02,
          -6.69590905e-02, -1.46986753e-01, -6.97583929e-02,
          -1.75601710e-02, 5.00802584e-02, 9.76245925e-02,
          7.66883325e-03, -1.21545933e-01, -2.10249349e-02,
          -3.35757546e-02, 8.27722475e-02, 3.01954499e-03,
          6.08610176e-02, 9.35604796e-02, -1.35773003e-01,
          -3.18122059e-02, 4.59345058e-02, -8.67743194e-02,
          -9.59165245e-02, -1.81898624e-01, -4.95021930e-03,
          1.72640942e-02, -4.34302464e-02, -1.16901942e-01,
          1.08209878e-01, -6.99123144e-02, -7.80269131e-03,
          2.91237775e-02, -4.64283936e-02, -4.09089960e-02,
          -1.50437821e-02, -1.17277238e-03, -2.16993671e-02,
          -1.33710414e-01, -1.09890759e-01, -8.94738510e-02,
          -3.61360200e-02, -2.25903541e-02, -9.73966271e-02,
          -1.95003804e-02, -5.65403178e-02, -6.36627078e-02,
          -1.20264344e-01, 3.03985476e-02, -1.10580318e-01,
          -7.48440027e-02, -9.48825777e-02, -2.46064309e-02,
          7.82462675e-03, 4.42130677e-02, -1.63108051e-01,
          -2.99268253e-02, -2.81267110e-02, 1.27435271e-02,
          -2.79590040e-02, -6.83351681e-02, -8.37454125e-02,
          3.54008679e-03, -7.32870698e-02, -3.74152884e-02,
          -3.82608324e-02, -9.14828759e-03, 2.43098941e-02,
          8.52485001e-02, -2.02692915e-02, 2.83786096e-02,
          -1.59003641e-02, 1.44364703e-02, -6.15588017e-02,
          -6.60967007e-02, 1.18238874e-01, -1.03127688e-01,
          -1.46655858e-01, -1.16794333e-01, -3.19137350e-02,
          -3.64687108e-02, -6.61330149e-02, 1.35070413e-01,
          -5.29220738e-02, 1.14209382e-02, 4.57566753e-02,
          -8.33822265e-02, -5.23254126e-02, 3.28255668e-02,
          -5.68664558e-02, -4.23065424e-02, 2.63611618e-02,
          1.11480728e-02, 2.64905719e-03, 2.49570441e-02, 5.88060357e-04,
          -8.04775581e-02, 4.56104092e-02, -1.10534064e-01,
          -2.08367810e-01, 1.21664353e-01, -4.26745303e-02,
          1.18356887e-02, 1.27037242e-01, -6.30097464e-03,
          6.97612390e-02, 9.17221606e-02, 7.54697155e-03, 6.07335232e-02,
          -4.57921550e-02, -3.65312546e-02, -1.58150506e-03,
          8.48387107e-02, -1.72340013e-02, -1.27160817e-01,
          4.62654233e-02, -4.28297110e-02, -5.94534986e-02,
          -4.88413461e-02, -2.36761402e-02, 9.08256397e-02,
          1.12666413e-01, 3.27434801e-02, -6.61698356e-02,
          -2.11249758e-02, 7.56403655e-02, -7.49034854e-03,
          3.50238336e-03, -5.16081974e-02, 3.51098664e-02,
          3.71307251e-03, -5.71640357e-02, -4.66790088e-02,
          1.93787925e-02, -5.49217686e-02, 3.38102062e-03,
          -8.94693881e-02, 6.65205121e-02, 1.17896505e-01,
          -4.15098853e-02, 4.51819450e-02, 6.08663168e-03,
          4.74464558e-02, 1.63168654e-01, 5.77180497e-02,
          -3.74630988e-02, -1.17263652e-01, -1.01078734e-01,
          -3.65965292e-02, -4.72383341e-03, 4.36965860e-02,
          -1.04384944e-02, -4.95935678e-02, -1.29199117e-01,
          -4.03640941e-02, -8.88321549e-02, 6.77574053e-02,
          -1.23330960e-02, -1.31820645e-02, 1.27599642e-01,
          6.75421432e-02, -5.59390597e-02, -9.77305770e-02,
          -3.90778556e-02, -1.08948937e-02, 7.69502223e-02,
          -4.26714271e-02, 3.56479287e-02, -1.42585248e-01,
          -7.26457387e-02, 5.79315759e-02, -7.07966685e-02,
          -4.77775058e-04, 8.96834433e-02, 8.02324638e-02,
          -4.28984910e-02, 6.81469589e-02, 3.16022448e-02,
          1.28318846e-01, 1.52765885e-01, 5.27477339e-02,
          -3.27700377e-02, -3.90479458e-03, 8.42958540e-02,
          -2.47952789e-02, 2.54504699e-02, -1.98486932e-02,
          2.03124564e-02, -1.11894675e-01, 1.79742891e-02,
          -1.76459849e-02, -1.64757133e-01, 3.59371565e-02,
          8.70698020e-02, -1.31088952e-02, 1.24047339e-01,
          3.98669578e-02, -2.18091868e-02, 1.13065213e-01,
          -8.27470347e-02, 5.70946634e-02, 7.05606490e-02,
          -2.01769248e-01, -7.09263906e-02, -1.35441512e-01,
          6.50525317e-02, 8.78938660e-02, 1.11573048e-01, 2.66105123e-02,
          2.71269474e-02, 1.44736379e-01, 8.59705284e-02, 9.35616158e-03,
          7.04386905e-02, 1.08118109e-01, 5.92851639e-02,
          -5.65593354e-02, -3.62914950e-02, -3.11964620e-02,
          2.85699293e-02, -1.23423032e-01, -1.87508494e-01,
          -1.11341134e-01, -1.53503820e-01, -1.09430455e-01,
          -2.10433081e-03, 4.80383225e-02, -3.61665711e-02,
          -6.45206869e-02, 3.83273140e-02, -5.82507402e-02,
          3.39447409e-02, -3.15659903e-02, -3.30856778e-02,
          8.76980722e-02, 4.73375851e-03, 7.65518751e-03, 2.66971979e-02,
          -2.92372727e-03, 7.22376779e-02, -7.63779059e-02,
          -1.00442998e-01, -7.70382285e-02, 1.46791991e-02,
          9.25814733e-02, 5.84711209e-02, -1.17140234e-01,
          3.05368695e-02, 1.15360156e-01, 1.04747161e-01, 2.74113100e-02,
          -3.66376862e-02, 4.60804394e-03, 5.81651740e-02,
          -2.63555609e-02, -2.34168991e-02, 8.51614103e-02,
          5.48700243e-02, -1.53953031e-01, 1.35082165e-02,
          6.22413307e-02, 7.26298690e-02, 2.32301299e-02,
          -3.69856730e-02, -8.35332200e-02, -1.11537389e-02,
          5.45811318e-02, 5.26031712e-03, 2.64457501e-02,
          -4.16681310e-03, 2.22123228e-02, -7.09763393e-02,
          -3.65480743e-02, -9.66816992e-02, 2.29983870e-02,
          6.74672127e-02, -2.04405025e-01, 6.30257884e-03,
          -3.78118455e-02, -3.19163539e-02, -1.40511692e-02,
          1.61540285e-02, 9.72106084e-02, 5.27762733e-02, 4.29734327e-02,
          1.72406379e-02, -2.58987751e-02, -3.23443301e-02,
          3.09997946e-02, -9.65061113e-02, -1.88437887e-02,
          -1.95127912e-02, -1.66437939e-01, 6.03808053e-02,
          -1.12465680e-01, -8.22889879e-02, -1.01654604e-01,
          -6.48549497e-02, -8.17306712e-02, -8.62705186e-02,
          -5.17028123e-02, -1.34343028e-01, 7.69396871e-02,
          -1.48368627e-01, -1.00650653e-01, -4.02387604e-02,
          2.97188926e-02, -3.62689123e-02, -2.15995647e-02,
          8.86135455e-03, -1.45258531e-01, 8.03495869e-02,
          -8.83304030e-02, 5.70064671e-02, 9.91296303e-03,
          -1.56038925e-01, 6.83700517e-02, -8.14088359e-02,
          5.08375801e-02, -5.18073440e-02, 1.53502613e-01,
          -1.09748609e-01, -7.98987150e-02, 1.06681228e-01,
          4.45994623e-02 ]
   decision_functions:
      -
         sv_count: 1
         rho: -1.1586664285614210e+01
         alpha: [ 1. ]
         index: [ 0 ]
